// Neural Network File Format by Kyle Julian, Stanford 2016
4,2,3,5,
2,3,4,5,3,
0,
-3.0,-3.0,
3.0,3.0,
-3.0,-3.0,-3.0,
6.0,6.0,6.0,
-3.62889e-01,1.97850e+00,
6.77306e-01,2.02728e+00,
9.05544e-01,1.14258e+00,
0.00000e+00,
0.00000e+00,
0.00000e+00,
3.72406e-01,1.23431e-01,-1.50728e+00,
7.15991e-01,1.30090e+00,-3.78738e-01,
-4.20717e-01,-1.66184e+00,-8.26768e-01,
-1.05424e+00,2.80971e-01,-8.18811e-01,
0.00000e+00,
0.00000e+00,
0.00000e+00,
0.00000e+00,
-3.89521e-01,1.43266e+00,1.07059e+00,1.11075e+00,
2.07125e+00,-1.65251e+00,2.86745e-01,9.17118e-03,
-1.05811e+00,3.26217e-01,-5.44203e-02,-1.40430e+00,
-6.33045e-01,-7.72910e-02,8.99789e-01,-2.81532e-01,
-4.65723e-01,-8.43647e-02,-1.07145e+00,5.68917e-01,
0.00000e+00,
0.00000e+00,
0.00000e+00,
0.00000e+00,
0.00000e+00,
4.17692e-01,1.19551e+00,-1.68039e+00,-1.22851e+00,2.37370e+00,
5.46852e-02,-7.23777e-01,1.16471e+00,1.13812e+00,-6.44301e-01,
2.56540e+00,8.95620e-02,1.09207e+00,2.67223e+00,-1.06229e-01,
0.00000e+00,
0.00000e+00,
0.00000e+00,
