// Neural Network File Format by Kyle Julian, Stanford 2016
4,3,5,7,
3,7,5,6,5,
0,
-30.0,-30.0,-30.0,
30.0,30.0,30.0,
-3.0,-3.0,-3.0,-3.0,
6.0,6.0,6.0,6.0,
6.95823e-01,7.56069e-02,6.56704e-01,
-1.42801e+00,5.34792e-01,3.87874e-01,
-1.32236e-02,-1.27715e+00,-2.35937e-01,
-5.43860e-01,-7.55374e-01,7.77649e-01,
-1.66827e+00,-2.07271e-01,-7.82082e-01,
5.12775e-01,2.44613e-02,5.81244e-01,
-2.15224e-01,-8.16705e-01,-2.67564e-01,
-1.08909e+00,
4.81630e-01,
2.67167e-01,
-9.46940e-01,
-1.21489e-01,
-3.73609e-01,
-3.91219e-01,
1.36623e+00,1.23569e+00,8.78220e-02,-2.86333e-01,5.58282e-01,3.86193e-01,1.77288e+00,
-4.48720e-01,-9.71526e-01,3.51483e-01,1.37216e+00,1.12681e+00,-8.78673e-02,-1.26876e+00,
1.55101e+00,-3.21972e-01,7.84616e-01,-2.26979e-01,-7.49543e-01,-3.46084e+00,-3.78973e-01,
8.76906e-01,7.45489e-02,4.66411e-01,-8.48362e-01,-7.74338e-01,-9.40824e-01,-9.61385e-01,
-1.80883e-01,1.03569e+00,1.05488e+00,-7.12593e-01,6.58309e-01,-2.11695e+00,-3.98275e-01,
1.00848e-01,
7.21697e-01,
5.22399e-01,
-1.24277e+00,
-5.08567e-01,
1.02280e-01,-2.09423e+00,9.69901e-01,-3.40147e-01,-3.36206e-01,
1.48572e+00,-6.22846e-01,1.21189e+00,-4.84379e-01,-2.04200e+00,
-7.78309e-01,3.18176e-01,-8.33563e-01,5.67556e-01,2.21247e+00,
4.17600e-01,-7.70701e-02,-2.06870e-01,-1.22771e+00,6.55502e-01,
1.27799e+00,-8.75495e-01,1.39059e+00,5.37879e-01,-9.63188e-01,
-6.29536e-01,-2.26341e-01,2.54346e-01,-2.13284e-01,8.61765e-01,
-1.14703e+00,
1.02483e+00,
1.58062e-01,
-7.46624e-02,
1.55799e-01,
-7.08216e-01,
1.20935e+00,5.55525e-01,1.05959e+00,1.51655e+00,-2.20953e+00,1.89373e+00,
-1.03096e+00,4.20638e-01,-1.57446e+00,-1.34135e+00,-1.80320e+00,-1.10011e+00,
-2.25314e-01,9.76232e-01,-1.31697e+00,1.63911e-01,-7.13076e-01,7.73732e-01,
5.49545e-01,-6.54684e-01,8.25729e-01,6.83258e-01,1.00977e+00,-1.27135e+00,
8.81531e-01,-6.84203e-02,-1.10084e+00,3.45993e-01,6.83496e-01,-4.26171e-01,
1.25361e+00,
-7.27538e-01,
5.17144e-01,
-1.73148e+00,
-4.73538e-01,
